%YAML:1.0
---
opencv_ml_ann_mlp:
   format: 3
   layer_sizes: [ 256, 100, 100, 26 ]
   activation_function: SIGMOID_SYM
   f_param1: 6.6666666666666663e-01
   f_param2: 1.7159000000000000e+00
   min_val: -9.4999999999999996e-01
   max_val: 9.4999999999999996e-01
   min_val1: -9.7999999999999998e-01
   max_val1: 9.7999999999999998e-01
   training_params:
      train_method: BACKPROP
      dw_scale: 1.0000000000000000e-03
      moment_scale: 0.
      term_criteria:
         iterations: 300
   input_scale:
      - 5.3219941283372083e-02
      - -5.7304262358607616e-01
      - 1.0576336012115668e-01
      - -7.8051720027396243e-01
      - 9.4423761580164717e-02
      - -7.6051386264954368e-01
      - 6.0652347228566517e-01
      - -2.0217449076188837e-01
      - 2.6367965596276011e-01
      - -1.5330212555974426e-01
      - 1.0486467209270552e-01
      - -1.9347125548886754e-01
      - 1.5504023802821948e-01
      - -2.4998736054162521e-01
      - 2.5043681310610244e-01
      - -3.2420889758696986e-01
      - 1.3609684924891724e-01
      - -3.0700917156151097e-01
      - 1.3513596262676242e-01
      - -3.0798428691680740e-01
      - 8.7620625727951623e-02
      - -2.6761648478149569e-01
      - 1.6836542226381213e-01
      - -1.4617773095772835e-01
      - 1.
      - 0.
      - 1.1402096846633080e+01
      - -8.8388347648318447e-02
      - 1.
      - 0.
      - 1.
      - 0.
      - 4.6476785502950195e-02
      - -6.3049902814079717e-01
      - 5.5734863447816300e-02
      - -4.8649190885458254e-01
      - 5.3621017844791723e-02
      - -4.0153413362844032e-01
      - 2.3514633124909326e-01
      - -1.5494138105560407e-01
      - 3.2850821005132411e-02
      - -1.5406780393879929e-01
      - 2.9365422914478273e-02
      - -1.9781823653241568e-01
      - 4.8145685064987377e-02
      - -1.5003539066763510e-01
      - 1.1191913741413291e-01
      - -2.6114465396631015e-01
      - 7.6844546408470368e-02
      - -3.1988776295619065e-01
      - 2.5438418789326352e-02
      - -2.5044024699569351e-01
      - 3.5075055950693497e-02
      - -2.1806352614307120e-01
      - 1.6222963084669223e-01
      - -2.0624542216168626e-01
      - 1.7789871527380433e-01
      - -9.5155126774360443e-02
      - 1.
      - 0.
      - 1.
      - 0.
      - 1.
      - 0.
      - 7.2589697025298994e-02
      - -6.7581570641383015e-01
      - 1.0906884687817708e-01
      - -7.2881663572859423e-01
      - 3.9169196234359542e-02
      - -3.0788810063287270e-01
      - 4.5554795222002141e-02
      - -1.4902421382701475e-01
      - 1.0022238738617245e-02
      - -5.7266606001819931e-01
      - 9.5315331018937591e-03
      - -1.0125591444058302e+00
      - 9.3614648086760392e-03
      - -9.0232909636494474e-01
      - 1.2141857253780435e-02
      - -5.6266684234960807e-01
      - 1.0772718181822172e-02
      - -6.2874259837937319e-01
      - 9.1443355847051593e-03
      - -8.1887879592646518e-01
      - 1.0436713669161822e-02
      - -6.1892139200843366e-01
      - 2.2456147592121466e-02
      - -2.4684354484983131e-01
      - 2.5878479032200352e-01
      - -1.2838935333804827e-01
      - 1.
      - 0.
      - 1.
      - 0.
      - 1.
      - 0.
      - 8.5709877399172518e-02
      - -8.0328094399689598e-01
      - 3.1366332972099065e-02
      - -3.2363247430902214e-01
      - 1.4193041260151071e-02
      - -4.2964206295263513e-01
      - 8.9304025343042680e-03
      - -8.9103264355837386e-01
      - 2.5154058760277532e-02
      - -2.2482658721395343e-01
      - 3.0270591490754600e-02
      - -2.2714676405465467e-01
      - 3.0472705449642157e-01
      - -3.9685383841394439e-01
      - 1.3314884557438869e-01
      - -3.9015708238076685e-01
      - 3.5039623431611162e-02
      - -2.9661448672340612e-01
      - 3.1219673335291742e-02
      - -3.1631095386997138e-01
      - 1.2966460838074683e-02
      - -4.3141123966679490e-01
      - 1.3410776956007911e-02
      - -3.9712533311589315e-01
      - 1.4379563740666117e-02
      - -3.3251347781710872e-01
      - 3.0098906125298884e-02
      - -1.5329442887070827e-01
      - 1.
      - 0.
      - 1.4252621058291350e+00
      - -8.8388347648318447e-02
      - 5.6449558340252712e-02
      - -5.6755873773106802e-01
      - 1.4225038168240910e-02
      - -4.9743524943360268e-01
      - 1.6108513821586436e-02
      - -3.0468816840830160e-01
      - 1.9076185671383149e-02
      - -4.4777279234843548e-01
      - 1.1124690335654625e-02
      - -9.6043159897818264e-01
      - 1.1033897815517042e-02
      - -1.0804666450047387e+00
      - 1.0567587379475109e-02
      - -1.0543011594871678e+00
      - 1.1038092976816806e-02
      - -7.3938109622227921e-01
      - 1.3993109656455912e-02
      - -5.5072106764206719e-01
      - 2.3845693382400338e-02
      - -4.8042602403766260e-01
      - 2.7013627012559882e-02
      - -3.9180229566278713e-01
      - 1.3336758022104307e-02
      - -4.0961422700447492e-01
      - 1.6876008888510052e-02
      - -3.3281059389433776e-01
      - 1.6759491244003874e-02
      - -2.6789202283051156e-01
      - 1.
      - 0.
      - 1.4252621058291350e+00
      - -8.8388347648318447e-02
      - 1.9655828504692267e-02
      - -4.1536270157977612e-01
      - 1.3017232857830246e-02
      - -4.9182940270592729e-01
      - 1.7584069055817494e-02
      - -4.1533843731066594e-01
      - 1.2598707852298042e-02
      - -6.8726439656295601e-01
      - 1.3564086864917613e-02
      - -1.3584064977354313e+00
      - 1.2216216270491614e-02
      - -1.2248414049809189e+00
      - 1.2388695987755346e-02
      - -9.8168411152585389e-01
      - 1.0814255216872130e-02
      - -1.1450535814516001e+00
      - 1.0950542265297994e-02
      - -1.2522666627726824e+00
      - 1.3762591692331665e-02
      - -6.8172837917828943e-01
      - 2.2224689972018527e-02
      - -5.0358735494736551e-01
      - 7.8109265489389332e-02
      - -3.4089547651570690e-01
      - 1.3095717175089861e-02
      - -3.9094268869202370e-01
      - 1.0188847761331703e-02
      - -6.1409528173917827e-01
      - 2.2626402418078870e-02
      - -1.7995882853448775e-01
      - 5.7010484233165402e+00
      - -8.8388347648318447e-02
      - 1.0341619938859665e-02
      - -6.1624831372104072e-01
      - 1.1803271081049728e-02
      - -6.9904644231953428e-01
      - 1.1564660300723206e-02
      - -8.7326632549879646e-01
      - 1.2127712739242732e-02
      - -1.0173176709406635e+00
      - 1.2167464902603687e-02
      - -1.0713028400292457e+00
      - 1.1989375001986441e-02
      - -9.2847950596778717e-01
      - 2.3765726493038816e-02
      - -4.0070120249891028e-01
      - 2.6192439327979825e-02
      - -4.2050032440500940e-01
      - 1.4632778776313334e-02
      - -6.8740030530588214e-01
      - 2.1910907751573942e-02
      - -5.2671104602814567e-01
      - 2.8432048835095498e-02
      - -4.7276546318821583e-01
      - 3.7419653734750702e-02
      - -3.0312820273499602e-01
      - 1.3400473023062501e-01
      - -1.2777195208036338e-01
      - 1.0483847554968728e-02
      - -5.3288828230953456e-01
      - 2.2195411021820717e-02
      - -1.9734989489944466e-01
      - 1.4252621058291350e+00
      - -8.8388347648318447e-02
      - 1.8397231593445289e-02
      - -4.1358117535652200e-01
      - 1.3152233505225736e-02
      - -6.8177508100344575e-01
      - 1.3728452984814321e-02
      - -8.1253285689191734e-01
      - 1.2258477022328676e-02
      - -9.6043742065640259e-01
      - 1.3458298745506646e-02
      - -6.3963433805194769e-01
      - 1.8149119641618208e-02
      - -5.6135649124074927e-01
      - 2.7268020685371541e-02
      - -3.1897242801725312e-01
      - 1.9958356016051185e-02
      - -5.9055073576176265e-01
      - 1.3668732235358496e-02
      - -6.5186078071260056e-01
      - 4.5096521192198306e-02
      - -7.8237220486930081e-01
      - 2.8286640210418434e-02
      - -5.1880768013837220e-01
      - 4.1026425579035908e-02
      - -3.5683449224556812e-01
      - 9.4249255808115467e-02
      - -1.4173919090522791e-01
      - 1.1077982364209007e-02
      - -5.6695224471711525e-01
      - 2.2212323544753065e-02
      - -2.1403037338083766e-01
      - 1.2668996496258977e+00
      - -8.8388347648318447e-02
      - 1.8158738087284219e-02
      - -5.2012819560089296e-01
      - 1.4042322302575769e-02
      - -6.9819732750946495e-01
      - 1.4592951404559506e-02
      - -8.1697903134673455e-01
      - 1.1752257681815165e-02
      - -9.7671282640884027e-01
      - 1.2031936739551519e-02
      - -7.8226242972572546e-01
      - 1.4054443467503236e-02
      - -6.5881565618598503e-01
      - 2.3090178124423953e-02
      - -5.8530916640981645e-01
      - 1.5215988070028540e-02
      - -8.2732511878434245e-01
      - 1.4271718426299011e-02
      - -7.5739677787940329e-01
      - 2.0969095365559593e-02
      - -6.9132994255600733e-01
      - 2.1107986247175105e-02
      - -4.9464684050550656e-01
      - 4.7475425342576177e-02
      - -3.3453613671629262e-01
      - 1.0838323413311600e-01
      - -1.8315926388387044e-01
      - 8.5824740207982517e-03
      - -8.3283263404924435e-01
      - 2.0103184513261929e-02
      - -2.1381061358290981e-01
      - 1.4074249700358543e-01
      - -1.3092325302659111e-01
      - 2.4040068935479161e-02
      - -5.3801301563355297e-01
      - 2.6625024611779496e-02
      - -7.0896867861598889e-01
      - 1.2835243590997091e-02
      - -8.4165368632747595e-01
      - 1.1824495888144290e-02
      - -1.1376264997500680e+00
      - 1.1672736508659973e-02
      - -1.5396248968592978e+00
      - 1.3728668957025927e-02
      - -2.4162457364365633e+00
      - 1.3301669829893142e-02
      - -1.8547064746533948e+00
      - 1.3960752480892029e-02
      - -1.6580828586026881e+00
      - 1.2505629377957156e-02
      - -8.3671385396238929e-01
      - 2.0683121439936666e-02
      - -4.5085998053567367e-01
      - 3.2275162245827466e-02
      - -4.8087489795721233e-01
      - 3.4788277736096274e-02
      - -2.9772293504380065e-01
      - 1.5428243594011137e-02
      - -3.2160113972322441e-01
      - 1.0787984539857859e-02
      - -5.5286330072093259e-01
      - 2.2619546933309472e-02
      - -1.9849090797291721e-01
      - 2.1513390276666186e-01
      - -8.8388347648318447e-02
      - 2.3752408151626801e-02
      - -6.5475630532701479e-01
      - 3.0918235262786614e-02
      - -7.5641822084770971e-01
      - 1.1767598582952133e-02
      - -1.0073611717173676e+00
      - 1.2247083978356754e-02
      - -1.2441708181113584e+00
      - 1.2990398664775622e-02
      - -1.4929895395656076e+00
      - 1.3583663712780986e-02
      - -1.9107686955978587e+00
      - 1.0248089610553207e-02
      - -1.0013734072947533e+00
      - 1.1586051722944198e-02
      - -6.7711041813392481e-01
      - 2.2933907764133107e-02
      - -4.5938928420558101e-01
      - 4.4065606853316765e-02
      - -4.7071632747186432e-01
      - 3.8456489576188725e-02
      - -3.9052714220780799e-01
      - 3.6767518336777591e-02
      - -2.1319460244891192e-01
      - 1.2351856564557444e-02
      - -4.7415809075727489e-01
      - 2.0383881624789879e-02
      - -2.4034018566903415e-01
      - 1.
      - 0.
      - 1.
      - 0.
      - 1.0923595780580931e-02
      - -7.6287344486243103e-01
      - 1.6303253508957460e-02
      - -7.4818031606998581e-01
      - 1.2324505018767697e-02
      - -1.0857984460332937e+00
      - 1.1236957160229140e-02
      - -1.2046192292155717e+00
      - 1.4816302786574993e-02
      - -7.1887782279978985e-01
      - 3.2664322686441601e-02
      - -4.8641987504383188e-01
      - 1.5260273128072587e-02
      - -5.0004011249893665e-01
      - 1.2693571105329994e-02
      - -6.2552737609754083e-01
      - 2.1963113684872068e-02
      - -4.1678838992687461e-01
      - 2.9323624460811090e-02
      - -2.7686957049044891e-01
      - 2.2899197741616792e-02
      - -3.1331072879033828e-01
      - 1.0971203698876570e-02
      - -5.5119667575518649e-01
      - 1.7326200700588597e-02
      - -3.0945400321051264e-01
      - 1.8848341237927904e-02
      - -2.2749509540661819e-01
      - 2.5719689628225254e-02
      - -1.9000669934650127e-01
      - 7.8096553744062186e-02
      - -8.8388347648318447e-02
      - 2.5329374458315890e-02
      - -6.6720321247563874e-01
      - 1.0624158151138112e-02
      - -8.2604888570476953e-01
      - 1.1901431418470537e-02
      - -9.0524686107002250e-01
      - 2.2544512506566271e-02
      - -3.8692674953130013e-01
      - 1.4690437711858868e-02
      - -3.9926104354866038e-01
      - 2.0667467824668696e-02
      - -3.9172061109546480e-01
      - 2.1795538743906082e-02
      - -3.7103103164044771e-01
      - 2.3930297211490176e-02
      - -4.5096552341963270e-01
      - 1.7597926354190992e-02
      - -4.3449143750463803e-01
      - 1.0922096576643682e-02
      - -5.7209772533628955e-01
      - 1.2868078631461293e-02
      - -4.1507035027527472e-01
      - 2.2752984579841033e-02
      - -3.1025193702279363e-01
      - 1.6373371346794990e-02
      - -2.9890922109846663e-01
      - 2.0815949838600866e-02
      - -2.4866185039754987e-01
      - 2.3072677836616710e-02
      - -2.7436812249124054e-01
      - 3.4015472253642924e-02
      - -2.3309827497845229e-01
      - 5.2946181398020868e-02
      - -5.2535745883307527e-01
      - 1.7115497388523686e-02
      - -4.5535183749932784e-01
      - 1.8371265598100293e-02
      - -4.5799992374798870e-01
      - 8.2684086239594081e-03
      - -1.2151355867676161e+00
      - 2.4452144651776701e-02
      - -3.6943589090164952e-01
      - 1.4879060193188395e-02
      - -4.3426094284770783e-01
      - 8.8345420681955490e-03
      - -9.6974508283448813e-01
      - 9.0757527848101330e-03
      - -9.1151514015503943e-01
      - 1.3156611556949357e-02
      - -4.5007850233191871e-01
      - 1.2125590812351414e-02
      - -4.3050547225247654e-01
      - 1.2851544637986394e-02
      - -4.5349016427995398e-01
      - 1.5263230427636054e-02
      - -3.4158873057818051e-01
      - 1.9360277033102013e-02
      - -2.3577515673645941e-01
      - 2.8667293814818511e-02
      - -1.8244843582919376e-01
      - 3.2774521409136212e-02
      - -1.6260227675850525e-01
      - 5.7010484233165393e-01
      - -8.8388347648318433e-02
      - 2.7859756724998861e+00
      - -1.5117697447673800e-01
      - 2.7830044801662315e-02
      - -1.5619342973956216e-01
      - 5.9852508852306321e-02
      - -1.6795820313592938e-01
      - 4.3387468834095257e-02
      - -1.2343566714816248e-01
      - 3.1646810375042612e-02
      - -1.7810530490140261e-01
      - 2.1070816079379575e-02
      - -2.2197859730137084e-01
      - 2.0522785989604449e-02
      - -2.2256881860043895e-01
      - 2.9218635254551692e-02
      - -1.7440580733337055e-01
      - 2.8691092120431982e-02
      - -1.9616700193969772e-01
      - 2.8688763399091148e-02
      - -1.7880438583619601e-01
      - 2.0168659808704983e-02
      - -2.4468180310560697e-01
      - 2.7210963392280341e-02
      - -1.9701581246813829e-01
      - 2.7068404111606204e-02
      - -1.6975456532007302e-01
      - 3.1884278435366398e-02
      - -1.7004948498862077e-01
      - 2.6030803363210082e-02
      - -1.7535479164829118e-01
      - 1.6521579265947070e-01
      - -9.0932723091646656e-02
      - 7.4850871872000624e-01
      - -1.2765264970418710e-01
      - 2.9818632114157237e-02
      - -1.5417850868327812e-01
      - 8.5955276688749208e-02
      - -1.6124943378819620e-01
      - 5.9889069890048316e-02
      - -1.1095726902109726e-01
      - 3.0060791094375879e-02
      - -1.7593718818801385e-01
      - 2.4803656538062258e-02
      - -1.7497153061733842e-01
      - 2.7486534044169848e-02
      - -1.7685134307489128e-01
      - 3.3405744196621581e-02
      - -1.6443912840972638e-01
      - 2.4235226203521386e-02
      - -1.7734925221801695e-01
      - 2.4407018764451907e-02
      - -1.7652518222661728e-01
      - 2.9231784320810222e-02
      - -1.7584391188332352e-01
      - 2.4260112572900051e-02
      - -1.7847168086575307e-01
      - 3.0307833062295904e-02
      - -1.7503360954581743e-01
      - 2.7164802849524165e-02
      - -1.7583418898723005e-01
      - 3.5725128221591088e-02
      - -1.5674746180946167e-01
      - 3.4089963923425184e-02
      - -1.6569308046502007e-01
   output_scale:
      - 1.
      - 0.
      - 1.
      - 0.
      - 5.2631578947368418e-01
      - 4.9999999999999994e-01
      - 1.
      - 0.
      - 1.
      - 0.
      - 1.
      - 0.
      - 1.
      - 0.
      - 1.
      - 0.
      - 1.
      - 0.
      - 1.
      - 0.
      - 1.
      - 0.
      - 1.
      - 0.
      - 1.
      - 0.
      - 1.
      - 0.
      - 1.
      - 0.
      - 1.
      - 0.
      - 1.
      - 0.
      - 1.
      - 0.
      - 1.
      - 0.
      - 1.
      - 0.
      - 1.
      - 0.
      - 5.2631578947368418e-01
      - 4.9999999999999994e-01
      - 1.
      - 0.
      - 1.
      - 0.
      - 1.
      - 0.
      - 1.
      - 0.
   inv_output_scale:
      - 1.
      - 0.
      - 1.
      - 0.
      - 1.8999999999999999e+00
      - -9.4999999999999996e-01
      - 1.
      - 0.
      - 1.
      - 0.
      - 1.
      - 0.
      - 1.
      - 0.
      - 1.
      - 0.
      - 1.
      - 0.
      - 1.
      - 0.
      - 1.
      - 0.
      - 1.
      - 0.
      - 1.
      - 0.
      - 1.
      - 0.
      - 1.
      - 0.
      - 1.
      - 0.
      - 1.
      - 0.
      - 1.
      - 0.
      - 1.
      - 0.
      - 1.
      - 0.
      - 1.
      - 0.
      - 1.8999999999999999e+00
      - -9.4999999999999996e-01
      - 1.
      - 0.
      - 1.
      - 0.
      - 1.
      - 0.
      - 1.
      - 0.
   weights:
      -
         - -4.1219497422821981e-03
         - 7.6189593501159870e-04
         - -2.8334135766862720e-03
         - 3.5406933692246597e-03
         - 4.0159812403819254e-03
         - 2.8430579191621435e-03
         - 2.3483632971709068e-03
         - -7.4497012705043719e-03
         - -4.5801924064676064e-03
         - 1.4803394387113947e-04
         - -3.7222486019015560e-03
         - -3.0611826557312309e-04
         - -6.5610737826421869e-03
         - -4.1846190485930615e-03
         - -4.7666073794487293e-03
         - -9.3351872454468573e-03
         - -2.1157533129155001e-03
         - -3.4217890505319737e-03
         - 1.0528753272183814e-02
         - 2.4896624917561008e-03
         - 3.2127627031308557e-03
         - 5.6227265216860476e-04
         - 4.3978513398987579e-03
         - -8.3988693551788831e-05
         - -3.9970888145650467e-03
         - 9.6712958712431851e-04
         - -8.2196014180689562e-03
         - 8.5618909061967153e-04
         - -1.3093778002321297e-03
         - 1.1211523818835752e-03
         - 2.0309641108063963e-03
         - -3.0252558079529841e-04
         - 1.6982661218666803e-03
         - -5.8229899923874931e-03
         - 6.1187790741709354e-03
         - -6.2422949299578458e-03
         - 5.5863120481175928e-03
         - 6.3175729592509170e-03
         - 7.8917734706840121e-03
         - 1.8657434304527455e-03
         - 1.6956560973512684e-03
         - -4.5937535339731763e-03
         - 4.4696517375479618e-03
         - -1.2791707844547666e-03
         - 7.7609328249078093e-04
         - -1.1961321375760605e-02
         - -2.2782483508005254e-03
         - -2.5497054249357495e-03
         - 6.4278378891106814e-03
         - 8.5191006369517968e-03
         - -5.0268189001798419e-03
         - -2.8696047016976713e-03
         - -1.8765725132353600e-03
         - 1.8206106235836173e-03
         - 5.2217186299540863e-04
         - 8.7805382501574797e-05
         - -7.6423623026993853e-03
         - 6.1752293099304354e-03
         - 4.3543470923454956e-03
         - -7.0780098831028648e-03
         - -5.1191325500795099e-03
         - -6.3771086910576003e-03
         - 3.9839659203866869e-03
         - 4.9224835829833544e-03
         - 8.0869961146446268e-04
         - -2.4103727319039832e-03
         - 2.4132208085461339e-03
         - -2.8039242451177843e-03
         - -3.5938846129787883e-03
         - -4.0640794665400808e-03
         - -1.0337720502846129e-02
         - -1.3570958479322177e-02
         - 1.7297716239168177e-04
         - -1.1539051539589866e-03
         - 5.1876937083687969e-03
         - -3.8622466879151491e-03
         - -4.4220279174666194e-03
         - 6.5156392863035982e-03
         - 4.8918840761056938e-03
         - 1.3618454056590736e-03
         - -4.9275442669281600e-03
         - -8.5880004092698595e-03
         - -3.1114679510009214e-03
         - -6.2886179404570116e-03
         - -6.0375035319315297e-03
         - 1.6759902058213678e-03
         - -5.6431193959502754e-03
         - -1.0086871033423603e-02
         - -6.2287908855115873e-03
         - -2.2910876019635804e-03
         - 3.6009472551936147e-03
         - -2.8382863510519993e-03
         - 2.9464868263558500e-03
         - -5.0418684332751360e-03
         - -2.7038167317499553e-03
         - -3.6567306963144002e-03
         - 6.6447578703143946e-04
         - 2.7028058867094459e-03
         - -3.0570033110175645e-03
         - 3.2507974538239864e-03
         - 2.5402916934175505e-04
         - -1.5047065982905124e-03
         - 6.2982511041453776e-03
         - -2.5506829884709438e-03
         - -2.3796004416405908e-03
         - 9.8971946371617507e-04
         - 1.1408952887110883e-03
         - 2.2004910684667789e-03
         - -4.9429200466589475e-03
         - 3.0037291469368768e-03
         - -4.0781056178562803e-03
         - 2.4030318589829693e-03
         - 8.5860140185399232e-04
         - -2.6267267019260214e-03
         - 3.8640264069740352e-03
         - -5.1905064421836284e-03
         - -6.7276124319317152e-03
         - -5.8516597005300484e-03
         - 1.4389435215555124e-03
         - 4.3819846280583235e-03
         - 4.8954109061949370e-03
         - 5.6699867103615440e-03
         - -1.8090264307605844e-03
         - 6.3837420289319805e-03
         - -8.8296917849121589e-04
         - -4.1688490254296407e-03
         - -2.9483465414334577e-03
         - 2.6999572734746884e-03
         - 7.8764200719055421e-04
         - -4.6409385889914145e-03
         - -6.3350420059871751e-03
         - 4.1516365246053559e-03
         - -7.6829261770538755e-03
         - 2.1008312177679066e-03
         - -2.8455513922091163e-03
         - -1.8547962703768447e-04
         - 7.1320842259876725e-03
         - -3.8748954251329394e-03
         - 6.5530602399273240e-03
         - 4.1438330538741434e-03
         - 5.6015839729937908e-03
         - -6.1031072205620608e-03
         - 5.8452360755001228e-03
         - -7.4125404819932210e-03
         - -4.7385483984823352e-03
         - -4.7122010015441286e-03
         - 6.1581802096372842e-03
         - -4.7109757897810167e-03
         - -6.0426656478584466e-03
         - -5.3787450390960587e-03
         - 4.7008887007600232e-03
         - -4.3227758553619441e-04
         - 6.8978699900682763e-04
         - -5.5922306031605494e-03
         - -2.9104976218583562e-03
         - 6.8882514851164086e-03
         - 6.6320324253962045e-04
         - 7.8381742859903476e-03
         - 5.4141236034735115e-03
         - -5.5847510480969888e-03
         - -7.8915197496023991e-04
         - -4.1847258761952295e-03
         - -5.2099228425410088e-03
         - -4.3617443883129997e-03
         - -3.5932922331672178e-03
         - -2.4740485697678951e-03
         - -5.7552712864333989e-03
         - 3.7204914446898208e-03
         - -1.3940837362314907e-03
         - 4.6067884828453970e-03
         - -4.5686272237778500e-03
         - -9.2416322222162450e-03
         - 1.4615313132671378e-05
         - -2.7199614125187760e-03
         - 4.1950523993108677e-03
         - -7.4316455773453102e-03
         - -3.8604508609415434e-03
         - -4.0987612549885175e-03
         - 5.1433385811410406e-03
         - -5.7671560676457369e-03
         - -2.4724423392583246e-03
         - -6.2430549225663493e-03
         - -7.5592347724921152e-03
         - 4.7563857563634693e-04
         - -6.6017779978808739e-03
         - 1.1815588046883557e-03
         - 2.1256194754023464e-03
         - -3.7964613851199152e-03
         - -7.3739044492121932e-03
         - -5.1513805137282783e-03
         - 2.7536711805721489e-03
         - -1.5717379701341912e-03
         - 3.2544359282372574e-03
         - -3.6660217373356268e-03
         - 7.2046485130881884e-03
         - -5.0762190647535873e-04
         - -3.8652613199748227e-03
         - 2.6390391374186183e-03
         - 2.1437385320813964e-03
         - 2.3784428935679091e-04
         - -4.8170390522019003e-03
         - 4.1964698726966549e-03
         - -4.4809074109078339e-03
         - 6.0127002999170367e-03
         - -6.1210901290434704e-03
         - 3.2881447665589940e-03
         - -2.0590248916248534e-03
         - 6.0768221127051360e-03
         - 2.4952293532351940e-03
         - -4.1184742384101032e-04
         - 3.1797924015514933e-03
         - -6.7696873238477012e-03
         - -1.0325055512085018e-03
         - -4.1919393964346893e-04
         - -5.6647534050494426e-03
         - -1.5235741143081469e-03
         - -7.0542807387580372e-04
         - -6.2696217812817433e-04
         - -2.3528861158356174e-03
         - -5.7317159983226477e-03
         - -2.7292383494514540e-03
         - 6.7632336607660586e-03
         - 1.2933550233374851e-03
         - -4.8505186509774575e-03
         - 1.7386814897064416e-03
         - 5.0559305336950397e-03
         - -3.0478380320265851e-03
         - -3.2632651216259255e-03
         - 5.3182237570642320e-03
         - -1.5161800452119880e-03
         - -3.5341916429362189e-03
         - 2.8451027236082511e-04
         - -3.1448490250409838e-04
         - -7.8069488738816964e-04
         - -5.9032651395503708e-03
         - -4.7724168650481588e-03
         - 3.1630090900137387e-03
         - 1.2670773810988046e-03
         - 5.4442629038046380e-03
         - 6.2445340657783328e-03
         - -3.8568231250706488e-03
         - -9.5015360258088582e-04
         - -3.6178397937495031e-03
         - -4.6550297892750999e-03
         - -1.4961618900821746e-03
         - 3.7869818412609693e-03
         - 2.7086994379131066e-03
         - -2.0047706406514211e-03
         - 8.1024626792170068e-03
         - 2.1667079011558231e-03
         - -3.7986867485868608e-04
         - -6.1273401514817657e-03
         - -6.1679427818175162e-03
         - -6.1725746559877716e-05
         - -1.2169560902094425e-03
         - -5.9545430931088814e-03
         - 5.7708168364374781e-03
         - -2.1369723932785603e-04
         - -6.5813380683896030e-03
         - -2.9909411355042250e-03
         - -3.5387362571014567e-03
         - 1.2074351866326858e-03
         - 2.5094795324464752e-03
         - -3.6050563590780322e-03
         - 1.7532684283079656e-03
         - 2.6540502035655969e-03
         - 3.2726123229275838e-03
         - -4.0196347015997499e-03
         - 8.4961628036053522e-03
         - 2.9304841352349540e-03
         - 2.5214625302423287e-03
         - 4.9139130314269823e-03
         - 4.4264585054757293e-03
         - 4.6576516965368686e-03
         - 2.8064532183590639e-03
         - 2.8377677507711030e-03
         - -6.0541134553151648e-03
         - 4.0832389434202658e-03
         - 3.8074737132051642e-03
         - 4.4713527120603816e-03
         - -1.1476335929647688e-03
         - -2.8786458197661634e-03
         - 8.1103492109602625e-03
         - 3.7320235482115531e-03
         - -5.2761426681947835e-03
         - 4.2255637331020598e-03
         - 5.1630466250247396e-03
         - 7.4516385225183732e-03
         - 8.9828033746644628e-04
         - 2.3948832173228203e-03
         - 5.6914855868492494e-03
         - 2.4203477513562821e-03
         - 2.1360211059832869e-03
         - -4.9892953780260058e-03
         - 2.8862053209340686e-03
         - -7.5831501180041424e-04
         - -4.2812479402167519e-03
         - -4.2075535192716684e-03
         - -4.8085225576502471e-03
         - -5.1324594209915756e-03
         - -7.5754110960546015e-03
         - 5.5805950523342999e-03
         - -2.8192740509159120e-04
         - -4.6949903555418664e-03
         - 4.4455203892256791e-03
         - -4.0153116301604799e-03
         - 4.3855768831087714e-03
         - -2.6105282415511818e-03
         - -1.4239146745131108e-03
         - 5.7294899075815368e-03
         - 2.6576385177378683e-04
         - 2.4551919810487997e-03
         - -1.8697872785366310e-03
         - 1.1557621166204267e-03
         - 6.1293083967675745e-03
         - -3.8240480467178102e-03
         - 6.6275749082378530e-04
         - -6.1602080959264711e-03
         - 5.6277778163841630e-04
         - -6.3351174466043624e-03
         - -8.3950258976903790e-03
         - -2.9168133996374711e-04
         - -4.9213916232958704e-03
         - -2.9620942229798203e-04
         - -2.7217660765333665e-03
         - -6.6410902694376784e-03
         - 1.0273235244085232e-02
         - 7.2679770402513189e-03
         - 2.0891441630868325e-03
         - -1.4070278313775533e-03
         - -3.6058301948775260e-03
         - -3.9710349672450549e-03
         - 3.8405866347004149e-04
         - 3.4394689052830063e-03
         - 6.4333802081679818e-03
         - 3.3686278790903304e-03
         - -1.0781485978012669e-03
         - 1.6476991845955579e-03
         - -9.3785827811658107e-03
         - -5.1104758854902772e-03
         - 7.8533842614132050e-03
         - -1.9337198906812611e-03
         - -4.7399309018800427e-03
         - -1.2930392391978297e-03
         - -4.6856073955131600e-03
         - 5.7236416581764584e-03
         - 7.6353694912571317e-03
         - 4.0253865659680976e-03
         - 6.8489241869477838e-03
         - -5.6365515952701555e-04
         - 3.1531604891997717e-03
         - -1.1786892690758860e-03
         - -9.4023525231698522e-04
         - -2.5595321245536671e-03
         - -4.7240953877397138e-03
         - -4.1322902957599134e-03
         - -4.1331204286494212e-03
         - 6.4461604327738405e-03
         - -8.1545351311753216e-03
         - -1.0267084527307714e-03
         - 9.0555093186143291e-03
         - 2.5445661820281771e-03
         - 1.8827493946293331e-03
         - 2.0272181628858180e-03
         - 3.1208303862630647e-03
         - -3.7822687933700382e-03
         - -1.0157466403651783e-03
         - -5.1078760285095991e-03
         - 3.8124421657705749e-04
         - 5.1905436764305432e-03
         - 1.1229306479057703e-03
         - 1.1941776850129270e-02
         - -8.1999081690769839e-03
         - -6.7233988681526611e-03
         - 7.1854017696804237e-03
         - -3.9680385273524691e-03
         - 3.4735008823774472e-03
         - -1.1600083803691255e-02
         - 2.3212595477544963e-03
         - 4.5722096907451137e-03
         - -1.7248791895634070e-03
         - -1.4999493310191610e-04
         - -2.9869187308670248e-03
         - 1.0756829474986077e-03
         - 6.2672675379886345e-03
         - 3.1635110919310629e-03
         - 5.0543176237946592e-03
         - -7.3780263499936661e-05
         - -1.8732700168635709e-03
         - -2.2594111307315616e-04
         - 5.1771149869441983e-03
         - -1.4854759361778171e-03
         - 2.0316437183290968e-03
         - 8.6548726937460651e-05
         - 5.7324219901806325e-03
         - -5.9291553797765132e-04
         - 4.6864244754571752e-03
         - 5.3551102012222183e-04
         - 4.2613666167707013e-03
         - -6.2253433160025110e-03
         - -7.8805945400963699e-03
         - 4.8937437211599944e-03
         - -1.5121620027336183e-03
         - 1.0863590133380297e-04
         - 1.0482913692286603e-03
         - -5.1509913714322059e-03
         - 2.8926442950822492e-03
         - 1.8715060155461926e-03
         - 5.4437423983280352e-03
         - -1.1284120793026672e-03
         - -6.7151447730469617e-03
         - -5.9489687261090295e-03
         - -2.3611598036319256e-03
         - -3.6169777565001611e-03
         - 1.3291760559247180e-03
         - 1.6875171141615148e-03
         - 4.7182398421149420e-03
         - -7.1278775632615263e-03
         - -6.1344584815020125e-03
         - -6.5714381297439922e-03
         - -4.3282168226775374e-03
         - -6.5931116007354384e-03
         - 6.0823880931684862e-03
         - 6.8898096480228370e-04
         - 8.7410759399562041e-03
         - 3.0138836562930015e-04
         - -5.1607048695411486e-03
         - -3.7528401689462675e-03
         - 6.4210934521391665e-03
         - -7.3138775167696504e-03
         - -2.5333659666708841e-03
         - 2.4864542916617606e-03
         - 1.5434820116683716e-04
         - 5.5157732637199364e-03
         - -2.6154939171306674e-03
         - -3.0219081995000079e-03
         - 5.1541869767429962e-03
         - 5.4501708701864470e-03
         - -1.4758986742302070e-03
         - 4.8177126535088426e-03
         - 6.7059624175211515e-03
         - 4.9025717372209760e-04
         - -7.9700679491107561e-03
         - -2.9639464829059495e-03
         - -2.3662932318654988e-03
         - -9.2061797908150704e-04
         - -3.7617992742449880e-03
         - 2.7647801012331890e-03
         - 7.3411437087684177e-03
         - -5.5867205952362942e-03
         - 4.0907359358523876e-03
         - 1.3349646422703872e-03
         - 5.6513374690482206e-04
         - -6.4193743692819430e-06
         - 4.3428855622760680e-03
         - 2.4505014514691072e-03
         - 3.0675168579953195e-03
         - 3.1372021082281482e-03
         - -2.9933557275339520e-03
         - -3.7306290392306223e-03
         - 8.0980673763142736e-03
         - 4.8746069897849268e-03
         - 1.3972493765447977e-03
         - 7.2671192704042977e-04
         - 6.2627113657714182e-03
         - 6.6986298941499293e-05
         - 2.9871208973012001e-03
         - 6.0760568233978272e-03
         - 1.1619904380505664e-03
         - 2.9780591048797407e-03
         - 5.3786000522332462e-03
         - -2.4774366361918270e-03
         - -5.1352446749920776e-03
         - 2.0177061859782863e-03
         - 1.4914933594918173e-04
         - 5.6781320440532227e-03
         - -3.8019801136242627e-03
         - 3.8438429551366951e-03
         - -6.7777562240764842e-03
         - -1.0704401648794412e-03
         - -6.3054681867111316e-03
         - 7.8913039220568446e-03
         - -2.6802383175129605e-03
         - 7.8968127700431486e-03
         - -1.2487313954214539e-03
         - -4.3707244637835639e-03
         - 2.9969496288697033e-04
         - -1.0072284181413670e-04
         - -4.4827021536946566e-04
         - -5.4771607296667897e-03
         - -6.8781925849983874e-03
         - -4.4135180798788786e-03
         - 2.0107106838689094e-04
         - 6.4436739083795149e-04
         - 5.7144324101164135e-04
         - -1.6971393453511606e-04
         - -6.8192356877998638e-03
         - 2.5100853454124582e-03
         - -4.6183193562253314e-03
         - 2.2850628417714811e-03
         - -6.1320190260976517e-03
         - -3.6142867541746727e-05
         - -3.6945322478801109e-03
         - 8.6736383139280147e-03
         - -3.8568094561861961e-03
         - -1.0089744815937019e-02
         - -5.3125197548935079e-03
         - 5.5343119759668361e-03
         - -2.6900143706762533e-03
         - -1.0230241661893331e-03
         - 1.0441664818846591e-03
         - 7.7801227820098254e-03
         - 2.8511850851797101e-03
         - 1.1683179572071394e-02
         - 4.3731093827527323e-03
         - 1.2462373923016353e-02
         - 3.1437158991050140e-03
         - 2.1930686692588097e-04
         - -7.7862932650707385e-03
         - -8.5553985370604192e-03
         - -1.0250921888035629e-02
         - -2.2539584760982588e-03
         - 5.5680528126506798e-03
         - -6.7931458916394060e-03
         - -4.4504766609607940e-03
         - -4.3325680394250519e-03
         - 4.8105292333245533e-03
         - 7.6774577869955915e-03
         - 1.4460827021441098e-03
         - 2.8469069726630757e-03
         - 3.4576979638980634e-03
         - -5.1166870684169882e-03
         - -4.8741119973694522e-03
         - -1.2976408770075960e-03
         - -2.1623270523357095e-03
         - 6.4308786070821694e-03
         - -2.1839411613431212e-03
         - -6.4669842957435462e-04
         - -5.3435784149248279e-03
         - -1.4630754904515141e-03
         - 5.3364752039806590e-03
         - 1.2227612969152738e-03
         - -5.1673484976552560e-03
         - -3.7260519024645035e-03
         - -5.6160770348670083e-03
         - 1.3204962996656772e-02
         - 9.2504618506498177e-03
         - -6.0781874011020991e-03
         - 9.5268244542266191e-04
         - -1.8536567222399818e-03
         - 8.0997289237018863e-03
         - 6.5324812250641103e-03
         - 3.7253384514015515e-03
         - -9.8293054861806604e-04
         - 3.1812269851816391e-03
         - -3.2785355236504264e-03
         - 7.2004332826844184e-03
         - 6.2555641014484442e-03
         - -5.5072827101127868e-03
         - -2.9480302670304910e-03
         - 1.0013069358822409e-02
         - 2.1108406441617436e-03
         - 2.0826677041246157e-03
         - 3.8180948953345254e-03
         - -5.4864733927093194e-03
         - -7.1148623240358038e-03
         - 2.5231232340884981e-03
         - 3.8866076182459668e-03
         - 9.2790510930000920e-03
         - 7.8439069953058875e-03
         - -1.7889533864680991e-03
         - 2.7942869444104752e-03
         - -2.8171140238169817e-03
         - -3.1607721745710378e-03
         - -7.2365477059937230e-03
         - -8.5390407738966893e-03
         - 1.2177066438856687e-02
         - -8.9401731224812257e-03
         - -2.6524638790287052e-03
         - 2.1581777211255393e-03
         - 3.9193366767924344e-03
         - -2.7750414021975043e-03
         - 5.0595334932829455e-03
         - -4.6865301378221993e-05
         - 4.5624448764010313e-03
         - -3.2872606753383471e-03
         - 4.8510911190934002e-03
         - 7.8572662454832222e-03
         - 6.0547433786110508e-05
         - -6.4697683579803588e-04
         - 9.0698437689320838e-04
         - 6.5712794007150160e-03
         - 3.1669537767014754e-03
         - 1.3156152270334272e-03
         - -4.1406929107201422e-03
         - 6.6287557262555133e-03
         - 4.0348793906512153e-03
         - -2.7216351007959723e-03
         - 3.1280822669945618e-03
         - 2.6563553308717731e-03
         - 9.4598944385370434e-03
         - -2.0240593167221068e-03
         - -1.5903152960581165e-03
         - -4.5404287679860688e-03
         - 7.1330685016114193e-03
         - 1.1075465033283931e-02
         - 3.1638721739377352e-03
         - -6.6121208327660393e-03
         - -2.9964747293910244e-03
         - 3.7448079025472958e-03
         - 4.1594095968536015e-03
         - -6.2819553560090229e-04
         - -5.3820672302657604e-03
         - -7.5993552079538455e-03
         - -3.6349018513106061e-03
         - -5.0428418520588967e-03
         - -2.0132125070388058e-03
         - -2.9243701274143533e-03
         - 9.3147701684156304e-03
         - 3.4395889622206629e-03
         - 1.4890499161244030e-02
         - 8.7897078044197469e-03
         - 3.8803741130401122e-03
         - 1.0301727669649256e-02
         - -1.4340181338680884e-02
         - 9.1002715425412689e-03
         - 2.4948586592295086e-03
         - -1.0165599057762443e-02
         - -9.4739687884822605e-04
         - 3.9992814016769759e-03
         - 1.3090077788233557e-03
         - 6.6236927693777373e-03
         - -2.5966681082342851e-03
         - -8.9769798500304136e-03
         - 6.4372221026852989e-03
         - -9.6676184421311418e-03
         - -5.6776734065692534e-03
         - -6.8839429357770950e-04
         - 1.9466965661914771e-03
         - 6.8522907779539483e-03
         - -5.4066554040279255e-03
         - -2.7089441448258878e-03
         - 8.9453671400101294e-03
         - -3.8344843183618408e-03
         - 1.9832670113474611e-03
         - -9.0194506952695642e-03
         - -9.7736657272319179e-03
         - 2.8329406302556744e-03
         - -3.2242513254501699e-03
         - -2.5554261314376418e-05
         - -5.3147517931022049e-03
         - 4.9723729390646759e-03
         - -3.8935268403235816e-03
         - -2.5654302098101632e-03
         - 1.6160293246720789e-03
         - 7.3085471922682693e-04
         - -6.8372615991098024e-03
         - 2.8362125072218267e-04
         - 4.0220742384713751e-03
         - 8.6045303861560340e-04
         - -1.2787442866513102e-02
         - -7.5472961384437697e-03
         - -8.5455057151821653e-03
         - 4.1788571034723056e-03
         - 4.2052101546419850e-03
         - -2.2843669684123277e-03
         - 4.6807872630782593e-03
         - 8.3816566380430207e-03
         - -9.4057128494036725e-03
         - -6.7555587355402798e-03
         - 2.8679799298032007e-03
         - -6.7134540491393347e-03
         - 5.9871644501210738e-03
         - -2.6073412226446722e-03
         - 1.0137124929362704e-02
         - -3.4344106029522070e-03
         - -3.0490304583345195e-03
         - 7.2034941395381722e-03
         - -8.0017100032691562e-03
         - 8.5806104040320077e-04
         - -3.5999051148525472e-03
         - -4.2992618384306742e-03
         - -3.1887183543388973e-03
         - -1.1798299148129673e-02
         - -1.4061670545745955e-02
         - 2.3217268459008920e-03
         - -3.1957542060168233e-03
         - 2.0456876835792275e-04
         - -1.1469972813582590e-02
         - 1.2115273163908272e-02
         - -3.4547232024183883e-03
         - -3.6562562344770905e-04
         - 5.7726259150713844e-05
         - -3.2984160869004727e-03
         - 8.3525167032909298e-03
         - -4.6237391379030457e-03
         - -5.7750611723460504e-04
         - -4.3555157205890250e-03
         - -2.7783633426125762e-03
         - -5.9548892500940211e-04
         - -2.7629861316724900e-03
         - -5.6498843722778032e-03
         - -2.4805973374370086e-03
         - -5.0482593159038706e-04
         - -1.8278492686749635e-04
         - 2.8741858612085958e-03
         - 6.2695790571194107e-03
         - 2.8961837677045545e-03
         - -7.5114011566152676e-03
         - 5.3776776504752223e-03
         - 7.9440760937814232e-03
         - -5.4068744951320750e-03
         - -2.3130012398364513e-03
         - -7.5745099871028006e-03
         - 8.6023917980307153e-03
         - 1.9743640526927219e-03
         - 2.8258227080737745e-03
         - 7.2595891589123380e-04
         - 1.9349994482815765e-03
         - 1.4565142650646919e-03
         - 7.6975007951132022e-03
         - 1.8588207419487507e-03
         - 4.2896003792814493e-03
         - 8.0476561752981565e-03
         - -6.3464390475789579e-03
         - 5.0679724883199171e-03
         - -4.7669029812170798e-03
         - 4.1419504616019304e-03
         - 3.2023712429537243e-03
         - -1.0428213420405133e-03
         - 1.5113821754406120e-03
         - -6.0805163272745827e-03
         - 7.5189020272958783e-03
         - 1.6679966899171980e-03
         - 7.1194005514576102e-03
         - -4.5005443161883216e-03
         - -2.8007190086703397e-03
         - 1.8840582537281547e-03
         - 3.1692644107396187e-03
         - 2.7568383605114481e-03
         - 5.7492415886401128e-03
         - -9.6890795929788203e-03
         - 1.9734678822874554e-03
         - -4.6041914019076726e-03
         - -2.4068949129876934e-03
         - -7.3752922388933102e-04
         - -1.2758988921135292e-03
         - 5.0914075605171362e-03
         - -7.3450959677529041e-03
         - 6.3227739125751477e-03
         - -3.5952287384348846e-03
         - 4.5181137982258689e-03
         - -6.9228608285628445e-03
         - 8.6500769671313976e-04
         - 1.2075366282426987e-03
         - 4.6932974629457572e-03
         - -7.2034506722448016e-03
         - 1.6612571294582622e-03
         - 4.2216778483556835e-03
         - -8.4526779336444296e-03
         - -2.5862363148918747e-03
         - -8.1137277353758724e-03
         - -9.2453842290025467e-03
         - 3.7563016492872026e-03
         - 4.6398863680519849e-03
         - 3.9738751072354028e-03
         - 3.9835917948966314e-04
         - -1.7598306209433863e-03
         - -3.0122559079917766e-04
         - -2.4464122565759591e-03
         - -5.1550674591417534e-03
         - -5.3179849405896717e-03
         - 1.5890709977826897e-03
         - 2.9435110743368016e-04
         - -1.1291648530498872e-03
         - 4.7609144444670176e-03
         - -1.0281489057999240e-02
         - -5.6045877316897915e-04
         - 1.4214194792014934e-04
         - -4.6117409115292007e-03
         - 2.4212356170141003e-03
         - -9.2237642549298990e-03
         - -7.9606967121671444e-03
         - -9.2701329489844331e-03
         - -8.5393113897960712e-03
         - 1.2646497826682178e-03
         - 2.2817229781918686e-03
         - -8.9816235785720663e-03
         - 3.0039911410616182e-04
         - 8.4932392115193893e-04
         - 4.4145004402443245e-03
         - 6.5504459443596211e-03
         - -6.2148390519155220e-03
         - 3.9389715373479616e-03
         - -1.8574323903134292e-03
         - -5.1164550022718292e-03
         - 3.7663652049171768e-03
         - 3.0007485058423174e-03
         - -8.4135702490740587e-03
         - 4.5051150343401666e-03
         - -4.9826073359241193e-03
         - -4.8240693876176761e-03
         - 5.7461547992528972e-03
         - 7.2379671633757761e-03
         - -6.1674056632265700e-03
         - -3.3341300290289900e-03
         - -6.2917672537650049e-03
         - 2.8656247331798946e-03
         - 3.1639773758145814e-03
         - -1.4850333721770903e-03
         - -3.8462730416841118e-03
         - 4.6461477228933578e-03
         - -4.0513508500590869e-03
         - 5.7106552922552524e-03
         - -6.9224880846475677e-03
         - 8.3540526127354828e-03
         - 1.6601379055072691e-03
         - 9.6882885983035137e-04
         - -1.9672553521081155e-03
         - 5.5627201601324110e-04
         - -5.4660122594626112e-03
         - -7.1021547390733141e-03
         - 3.4864876206617021e-03
         - -6.7982941669702006e-03
         - -1.1227736786708778e-03
         - 2.9506605968052883e-03
         - 1.5444984466959277e-03
         - 5.8967254758997701e-04
         - -1.2011538566583035e-03
         - -1.5515408779520614e-03
         - -3.0957177941102806e-03
         - 5.4419217411404912e-04
         - -4.1571647098690898e-04
         - 8.2109291265759464e-03
         - 4.5052253743694615e-03
         - -2.3859447150304100e-03
         - 2.9118415059794086e-03
         - -7.9481868183105507e-03
         - 3.1483046836676526e-03
         - 1.4695922616007127e-03
         - 1.2012976423730714e-03
         - 6.7371319431400343e-03
         - -1.8100617039788565e-03
         - -2.6067904299090752e-03
         - -4.5260031681467654e-03
         - 9.5767470925162673e-03
         - 2.9989260836621491e-03
         - 4.7509933884951156e-03
         - -4.5294490566823624e-03
         - -6.3684898937472231e-04
         - 1.1081879153211846e-03
         - -1.4434186262725474e-03
         - 5.8890338136367692e-03
         - -1.9289539988343147e-03
         - -6.2930505610080349e-03
         - -6.8049134644098796e-03
         - 4.1039453676016821e-03
         - 8.2152282329820672e-04
         - -8.4366368195031034e-03
         - -1.1158673241388583e-03
         - 6.2437600479166369e-03
         - -6.4997228907765605e-03
         - 4.1618740586912223e-03
         - -7.7268226704680929e-03
         - 3.7481902175017876e-03
         - 1.3748243554913958e-03
         - -1.8616161784895803e-03
         - -4.6963733126690315e-03
         - -2.7512211555135923e-03
         - -6.3191134606549188e-04
         - 1.1330749867458367e-03
         - 1.4609620629574091e-03
         - -6.7750146765525234e-03
         - -6.7004490834039910e-03
         - -4.4621707404463471e-03
         - 1.1691962352713922e-03
         - 7.4886926499401390e-03
         - -6.1628201349018729e-03
         - -3.0879604109170012e-03
         - 6.1491515077868319e-03
         - -3.2301851257902823e-03
         - 4.2485611820935933e-03
         - -6.0864072814168814e-03
         - -5.0082177800269967e-03
         - -2.1940779568925574e-03
         - -2.5722427943514698e-03
         - -3.9616368898143716e-03
         - -4.7206298311895222e-03
         - -3.6936719554135629e-03
         - -6.9604084209783723e-03
         - 9.9397996517681746e-04
         - -2.7622612755386590e-03
         - -2.3723283336191231e-03
         - -5.0273689140606587e-04
         - 4.8585934569227241e-03
         - 8.3239396187701608e-03
         - -3.1106371561525430e-03
         - 3.6603543385302999e-03
         - 2.2991638328181191e-03
         - -4.4285830688576937e-03
         - 3.7045493169797273e-03
         - -1.9123355853316697e-03
         - 5.5184727671770373e-05
         - -2.0222800463564586e-03
         - 2.5114816445032922e-03
         - -4.4848699763289325e-03
         - -3.2397906568824283e-04
         - 7.6020780002333983e-03
         - 9.7397467117565798e-04
         - 5.4543088776372959e-03
         - -3.3288354406687845e-03
         - -5.8702261814987727e-03
         - -1.6489848807225520e-03
         - -3.0929959054657183e-03
         - -5.0539899863791459e-03
         - -3.9242898758504625e-03
         - -9.3600646579165858e-04
         - 3.4927414619050400e-03
         - -1.7804993067671274e-03
         - 7.1106191403444918e-04
         - -5.6360810039145443e-03
         - -1.5102683038621088e-03
         - 5.3957313662214377e-03
         - 8.3392998589442704e-04
         - -6.3455163255541642e-03
         - -6.2769246285977189e-04
         - -8.9259666308362246e-04
         - -2.3829798661644404e-03
         - -4.6785844045491385e-03
         - -6.8484696846615499e-03
         - -4.0905724102333080e-03
         - -5.7703312925151641e-03
         - -2.3129458165222069e-03
         - -1.0629238604138707e-03
         - -6.8859988500999808e-03
         - 5.0902010739709430e-03
         - -1.0676094630928197e-04
         - 5.9339385190809843e-04
         - -3.0654965749921268e-03
         - -1.9912558143790572e-03
         - 1.2668477594873313e-03
         - 3.3441129223112011e-03
         - -2.3695903566139779e-03
         - -5.5088957155325696e-03
         - -7.8295353910324012e-03
         - 1.8326324645587862e-03
         - 5.9443648246124926e-03
         - -6.3774786996566839e-03
         - 4.0555472248486194e-03
         - 1.0843028535177962e-03
         - 8.5135332873065967e-04
         - -4.7905027371906165e-06
         - 4.7048737002243412e-03
         - 6.4383353262997822e-03
         - 6.0035692331894611e-03
         - -5.4451532735052162e-03
         - -7.2604317065985587e-03
         - -6.2465091379994833e-03
         - 2.8718059174421807e-03
         - 7.5823771827163745e-03
         - 3.3575244448267780e-03
         - 1.4244568118206896e-03
         - 9.1859312301798566e-04
         - 5.0402847174517047e-03
         - -4.0547628825002430e-03
         - -4.5235315840923811e-03
         - -5.4348231645699055e-03
         - 6.5931274516470486e-03
         - 6.4546619879564306e-03
         - 2.7060522045013161e-03
         - -3.8022667169431215e-03
         - 2.7420546176802766e-03
         - 6.4646315184667021e-03
         - 2.1079188299841850e-03
         - -6.6242550939985215e-03
         - -7.6355243562584874e-03
         - 5.0608644494589900e-03
         - -7.3516911580647866e-03
         - -7.2707891341669485e-04
         - -6.7583902290932656e-03
         - 4.8867918604725379e-05
         - -3.6805442247860830e-03
         - -1.5263728638955601e-03
         - -5.7178841631644094e-03
         - 5.0069440298621771e-03
         - -5.6824313993320483e-03
         - 3.1879157856709380e-03
         - 2.3330163706624185e-03
         - -4.2377033059875892e-03
         - -5.3015095629156423e-03
         - -5.4874255672951958e-03
         - 7.7901949212727589e-03
         - 5.7800354415802301e-03
         - -5.2022089341172625e-03
         - -4.7606320709302060e-03
         - 7.6288736981392066e-03
         - 4.2622427236379554e-03
         - -8.6776432098521501e-04
         - 8.7600403530205696e-03
         - -5.8328145013052512e-03
         - 5.8067839225712922e-03
         - -6.6920881585562433e-03
         - 6.3532078463009681e-03
         - -3.3258942272054075e-03
         - 4.9411569181781372e-03
         - -6.7763025035565087e-03
         - 7.6495390936917856e-04
         - 6.4613115359380422e-03
         - -5.1696130377153976e-03
         - -1.2231486722254889e-04
         - 6.7626711510200609e-04
         - -5.2402739823858508e-03
         - -1.2625256519536035e-03
         - 3.0393024583544241e-03
         - -4.5608045383789177e-03
         - 7.1116557120263118e-03
         - 1.1016633406383675e-03
         - 3.6677402634406743e-03
         - 5.1404338314581461e-03
         - -4.5825598611026032e-03
         - -1.4633380498294177e-03
         - -1.6811610965077165e-04
         - 3.2020951987517227e-04
         - -6.8533807608506057e-03
         - 5.3611532961151207e-03
         - 5.9424877173539720e-03
         - -3.9397014385324100e-04
         - 6.5088574671514571e-03
         - -2.8911113243674119e-03
         - -6.7966343469829304e-04
         - 7.1804444170882513e-03
         - -5.8229206178739999e-03
         - 7.4783796271067045e-03
         - -6.1758287173571801e-03
         - 5.3525490261797258e-03
         - 5.5858404547759130e-03
         - -5.4311722507646753e-03
         - -2.8112437740023563e-03
         - -2.6661567616843951e-03
         - -6.0650675886338027e-03
         - 3.0656590796423713e-03
         - 3.5961216631678838e-03
         - 4.6838665963591210e-03
         - 6.9681051203752205e-04
         - 4.1534960624491002e-03
         - -1.4585601984058968e-03
         - 5.8611003211399108e-03
         - 2.7966803914712348e-04
         - 6.4915739295991473e-03
         - 6.7646239968847744e-03
         - 3.0424538514937211e-03
         - 1.6157201091051209e-04
         - -1.1121362464733744e-03
         - -6.9635306081484863e-03
         - -5.4329921351920331e-03
         - -6.8684367983399214e-03
         - -4.0581158669865886e-03
         - -1.0374319398849306e-03
         - 4.1085484422429125e-03
         - -4.7866433952312715e-03
         - 1.0686733111031014e-03
         - -5.7325406609906992e-03
         - -2.1652086418317081e-03
         - -6.9545306815885144e-03
         - -6.1913644188896430e-03
         - 6.3305918251471754e-03
         - 2.7246923808111495e-04
         - -1.2276336573038352e-03
         - 2.6086421309205444e-03
         - 2.6191128165905462e-06
         - 5.6432030382301520e-03
         - 6.5508664017680110e-03
         - -5.0299527486595058e-03
         - 1.8248883576446405e-03
         - -5.0957585180188957e-03
         - -6.1730496215657126e-04
         - 5.4225289375403789e-03
         - -4.6916950279341368e-03
         - -7.4664383882325986e-03
         - 4.6335712371245808e-03
         - -3.3780784494027928e-03
         - 1.6237958976660031e-05
         - -7.0929088579350652e-03
         - 3.5301935306265428e-03
         - 1.1292067918817067e-03
         - -2.4082326014571529e-03
         - -5.8581131824050779e-03
         - -2.9971208093318366e-03
         - 6.3301304449395000e-03
         - -2.5973291506789244e-03
         - 7.0445605217842912e-04
         - 3.9277187541799296e-03
         - -2.9760363721358478e-03
         - 1.9704870275184067e-05
         - 1.8226394399761868e-03
         - 4.0998651991781766e-04
         - 3.0641882339547443e-03
         - 4.0869376101349726e-03
         - -8.5372160708284742e-04
         - 5.1423934270149879e-03
         - 4.1235719608579628e-04
         - -4.9220752623308495e-03
         - -4.3516898903007825e-03
         - -1.2782263138349252e-03
         - -7.1126402896579174e-03
         - -2.4402225902958878e-03
         - 7.0154848041912429e-03
         - -9.7580623274869983e-04
         - 7.3044887009168068e-03
         - -7.0994918899406050e-03
         - 4.0510952566013454e-03
         - 2.6582378330943968e-03
         - 2.0491645441833724e-03
         - -3.8075325360217948e-03
         - -9.1349337588528137e-04
         - 2.4650569975944981e-03
         - 2.2277997458552048e-03
         - -5.5664910024806041e-03
         - 1.6219925398000094e-03
         - -6.4602942181402768e-03
         - -2.9018360677952812e-03
         - -4.7556034617785353e-03
         - -4.7235443783864165e-03
         - 1.8263904542812667e-03
         - 3.6838522156046913e-03
         - 5.6622053657351280e-03
         - -3.3936474111460942e-03
         - 2.4718974994270937e-03
         - -4.4289677160920205e-03
         - 4.6478286880322750e-04
         - -6.4908569273914177e-03
         - -7.2812761018949202e-03
         - -8.3130237859312952e-04
         - 1.7172607144472025e-03
         - -5.2084733397213755e-04
         - -3.7721649696410156e-03
         - -4.9939129706280411e-03
         - 4.6688506070769267e-04
         - -2.0244588695463141e-03
         - -6.1239892139124848e-03
         - 1.2935672712074179e-03
         - 1.9443036015549587e-03
         - -3.8938322795789705e-03
         - 2.6261961089730315e-03
         - 1.3805697362818262e-03
         - 5.6770990218349285e-04
         - -6.7772828587141076e-03
         - -3.1537241944379251e-03
         - 1.1064148679378084e-03
         - 1.4893824202257264e-03
         - -6.3360135337690521e-03
         - -1.1990983883813091e-03
         - -3.5125043591556909e-03
         - -3.2428006444946652e-04
         - -4.5615901062992402e-03
         - -2.2275426876037156e-03
         - -5.0334971786502114e-03
         - -4.6451532299675155e-03
         - -2.5251333976525352e-03
         - 2.9400643934775227e-03
         - 3.9309685428862567e-03
         - -6.4138558424961340e-03
         - -4.3319437491851718e-03
         - 4.2726178211908439e-03
         - 2.6060571578282185e-03
         - -3.5595116761378827e-03
         - 3.2940850715958022e-03
         - 2.7945657443514400e-03
         - 2.3805870534814887e-03
         - -3.1019123355409358e-03
         - -2.9108688010730612e-03
         - -5.8252497778316902e-05
         - -1.5211291698638356e-03
         - 4.3723999142219489e-03
         - 3.5661854607957010e-03
         - -7.7298828910187696e-03
         - -1.8412331279869954e-03
         - -2.6924672614368613e-03
         - 4.0445377365868887e-03
         - 1.3170042258220786e-03
         - -6.4006279079987837e-03
         - -3.2453497253549816e-03
         - 5.7979160349277198e-03
         - -6.7567565617126851e-03
         - 1.2929105007381358e-03
         - -5.5790889203591199e-03
         - 1.8080592267819028e-03
         - 1.9409755144448315e-03
         - -2.9196892039348105e-03
         - 1.2638553266960822e-03
         - 6.4413102732158141e-03
         - 4.5664710160279176e-03
         - -5.2495456459522383e-03
         - 5.2157688310903970e-03
         - 5.3623326985402699e-03
         - -8.2887119124295746e-04
         - 6.4241761893390802e-03
         - -3.0386208852815825e-03
         - 4.9803379943006755e-04
         - -4.2086993725666761e-03
         - -5.2131521229223749e-03
         - 2.0319517529537373e-03
         - -7.4873111964508642e-03
         - -1.6968184103182502e-03
         - -6.4705964971498316e-04
         - 3.4699816456021495e-03
         - -4.9296381836119226e-03
         - -6.8923332914589243e-03
         - 6.2132179814832827e-03
         - -3.9738957925334190e-03
         - -2.1953424287018248e-03
         - -3.4456674599805631e-03
         - -4.1253122282529303e-03
         - 2.2943037270005688e-03
         - 5.1755086863225219e-03
         - 2.7421026445611206e-04
         - -2.0962489134708833e-03
         - -2.6024017364533647e-03
         - -5.8410962157449016e-03
         - 1.6209274164685056e-03
         - -5.8221383894181836e-03
         - 2.0985286085383279e-03
         - -3.6496695817232892e-03
         - 1.1743824447779487e-03
         - 2.0681826900010793e-03
         - 4.2165216666389879e-03
         - 5.8649013330076491e-04
         - 2.6044712378987182e-03
         - -1.3547141147791570e-04
         - -7.3917621284474259e-03
         - -8.6265662850196516e-04
         - 5.6860943974389629e-03
         - 2.5303811967330465e-03
         - 4.2346663107476583e-03
         - -2.6884703317694089e-03
         - -3.3093726616508694e-04
         - 7.1975550776192821e-03
         - 2.0387123866708887e-03
         - -5.3884092602372088e-03
         - -6.5887063581235713e-03
         - 5.6872866280012853e-03
         - -5.7728089627040362e-03
         - -2.0872747793173876e-03
         - 1.4757616942900555e-03
         - 7.2972661877339371e-03
         - 5.7909045420110033e-03
         - -4.8731853954894046e-03
         - -3.5034757487138013e-03
         - -6.9680362570297139e-03
         - 1.9664190538887529e-03
         - 2.3063193006561699e-03
         - 5.2442198533057868e-03
         - 6.8740606848214196e-03
         - -6.6603742500723692e-03
         - 3.5884309915493562e-03
         - -5.4434268082536597e-03
         - -7.1356367764548578e-03
         - 4.4481807599527513e-03
         - 6.9024517809805619e-03
         - -5.0236427334973245e-03
         - 6.4010060112015725e-03
         - -6.4480294292952800e-03
         - 1.8336120727546564e-04
         - 4.5162383025048819e-03
         - 7.4353748462157154e-03
         - -3.9657679276296392e-03
         - 6.7100292428712710e-03
         - -3.1107965108902224e-03
         - -7.2692254469819053e-03
         - 6.3931398984621449e-03
         - 7.4718994187311892e-03
         - -1.6224814283738044e-03
         - -1.3804465417923348e-03
         - 1.9544546833373581e-03
         - 6.3637553816225554e-04
         - 3.4341063212631651e-04
         - -3.1284219452359261e-03
         - -3.0860459253368349e-03
         - 4.0017867187190168e-03
         - -1.9228514371308550e-05
         - 5.2277233505701242e-04
         - -4.7440697879624193e-03
         - -4.0707352604973804e-03
         - -7.0096344040648350e-04
         - -6.5608039607295424e-03
         - 1.8814679030226913e-03
         - -7.3283671730774618e-03
         - -2.6256118897215889e-03
         - 2.1593033287076501e-03
         - 5.5432912238983154e-03
         - 3.4495292088824276e-03
         - -4.9430117269440288e-04
         - -7.9870962781529633e-03
         - -5.5907777460435740e-03
         - 3.4183224070086248e-03
         - 6.8586039179529201e-04
         - 4.6511666297099899e-03
         - -7.3636364196999031e-03
         - -2.6286157512502738e-04
         - -6.7042769920388707e-03
         - -3.0147103726389820e-03
         - -8.1277078170097065e-04
         - -1.1629427991113877e-03
         - 1.7358581619573907e-03
         - 7.6026433277181244e-03
         - 2.8600598044915613e-03
         - -2.1112624393034708e-03
         - 1.7479337403307320e-03
         - -2.1106759984262963e-03
         - 1.1373560461326320e-03
         - -6.1728681374161242e-03
         - 2.4807652574260078e-03
         - 2.9706304303084023e-03
         - 2.5553075624057250e-03
         - -4.1889442253624102e-03
         - 1.3242599622412218e-03
         - -8.0962582569631732e-03
         - -4.3246251949340250e-03
         - 7.6855652277762719e-03
         - -1.9769951815596771e-03
         - -6.9005935478009498e-04
         - 4.3028711313228482e-03
         - 3.6510402767908358e-03
         - 8.0699330346025114e-03
         - 2.7575154853788668e-03
         - -4.4147269165054478e-03
         - 4.9023234303088598e-03
         - -3.8226086761423451e-03
         - -5.0408037264476502e-03
         - -4.5067654443942343e-03
         - -7.3012542011737574e-03
         - -7.6619094717829336e-03
         - 1.7708041862118482e-03
         - 3.9879474821078922e-03
         - -3.4287792736762751e-03
         - -6.3536351740481143e-03
         - -5.6365178247691780e-03
         - -3.4709439699356177e-03
         - -4.6325492810314816e-03
         - 7.8603950886021352e-03
         - 2.8338325026472208e-03
         - 2.4278690832193247e-03
         - -1.5387618931181218e-03
         - 9.0502036251950745e-04
         - 8.0527325381358397e-03
         - 4.3003072039494543e-03
         - -2.5440348101697825e-03
         - -5.6069912680479766e-03
         - -5.2333022105420278e-03
         - -4.6020762308833082e-03
         - 2.8814606120205317e-03
         - 2.1657915822095278e-03
         - -4.1167150579416219e-03
         - 6.9777123436203957e-03
         - -7.0916737788979806e-03
         - -3.8629048552531048e-03
         - 2.1193690554903504e-03
         - -3.0493872311997136e-03
         - -3.8171925994632721e-03
         - -7.1363003559430397e-03
         - 1.4302353512678405e-03
         - -3.6425454213268476e-03
         - -2.6602428379735640e-03
         - -4.5745915029688309e-03
         - 1.4565013135081518e-03
         - -4.1636550030826752e-03
         - -1.0010561406464356e-03
         - 1.2040342170170835e-04
         - 4.9216764191486402e-05
         - -3.4996908116666559e-03
         - -1.9247924045701400e-03
         - -8.3988504185568743e-03
         - -3.0375485281507785e-03
         - 4.0813490037891189e-03
         - 7.7523163150030041e-03
         - -2.2642952047450740e-04
         - 6.6480840302847954e-04
         - 6.9941604798852012e-03
         - 6.8660571263663740e-03
         - 3.6465455398593484e-03
         - -7.8920431876907749e-04
         - -4.5547267622637298e-03
         - -1.2175654274085440e-03
         - 2.3019144247825901e-03
         - -3.6330320634589451e-04
         - -2.6591925244563190e-03
         - -4.6302746241842115e-03
         - -7.5847912095122535e-03
         - 5.5023003638034716e-03
         - -5.3596352643133132e-03
         - 3.4394617832699168e-03
         - -2.8923578445698315e-03
         - 4.5883713608555485e-03
         - -1.7906889092754610e-05
         - 6.6646805032652282e-03
         - -9.1707538496625402e-03
         - 5.7639775180300303e-03
         - 2.3791369627801191e-03
         - 3.8666435853902592e-03
         - 6.8894140123104610e-04
         - -3.4674057839086513e-03
         - 3.9305914809525310e-03
         - 1.9377264985326337e-03
         - 4.4063792029081011e-03
         - 2.5432942753068049e-03
         - 4.1472575972131163e-03
         - -1.8507306990260687e-03
         - -2.2595495050828436e-03
         - -4.9749273481403426e-03
         - -3.8670090283139235e-03
         - -2.5720784946391771e-03
         - -5.1635064315406747e-03
         - -5.1441907232414085e-03
         - 7.3946521600189328e-03
         - 1.9860407714986763e-03
         - -6.8606968021827919e-03
         - 4.7315881175001148e-03
         - -6.7637511345847567e-03
         - 3.9532705840397350e-03
         - 3.8868781459136183e-03
         - -1.2753613274173537e-03
         - -7.6124292490817409e-03
         - -6.1459765450346693e-03
         - 2.8243353508119419e-03
         - -4.4173943674581766e-03
         - -1.6266709998414034e-03
         - 5.0874209128389273e-03
         - 6.3864762482684504e-03
         - 6.5909628487005106e-03
         - 3.3465212902032936e-03
         - 5.9115071640775041e-03
         - 6.8565670838184852e-03
         - 1.3419287236653615e-04
         - 5.9242094984750127e-03
         - 7.3434636991812708e-03
         - -2.3731163332512671e-03
         - 4.2320040160878395e-03
         - 5.8026844706419098e-03
         - -1.0717198183828648e-03
         - 6.9845009387934937e-03
         - 2.4868709921005007e-03
         - 7.3345809392403273e-03
         - -7.2036789810867316e-03
         - -2.7060647549302028e-03
         - 1.0655205702470171e-03
         - 3.5706622990231479e-03
         - 4.0703676077358027e-03
         - -6.8499952751135441e-03
         - -4.4234496709517259e-03
         - 6.2473949027792210e-03
         - -4.3957850097423945e-03
         - -4.0009386435625369e-04
         - -2.4653287523405897e-03
         - 3.8446479637363359e-04
         - -7.9318753511728752e-03
         - 5.3104642964465643e-03
         - 5.1737215185758065e-03
         - 6.8183284477370343e-03
         - 4.8610878614581661e-03
         - -4.2791797424504008e-03
         - 6.6429112361889369e-03
         - 1.0997820749928857e-03
         - -6.9859460912960998e-03
         - -2.0777442974384401e-03
         - -6.6623337420296724e-03
         - -3.6141072261730617e-03
         - 4.9251510874769883e-03
         - 4.2131783653908675e-03
         - -4.9130950362483584e-04
         - -8.0373405575335163e-03
         - -9.6730057763096773e-04
         - -3.1251995274780790e-03
         - 1.4146723866716947e-03
         - 3.6847964014844249e-03
         - -4.8574463190142773e-03
         - 3.7552366729393626e-03
         - -6.2712488998279727e-03
         - -7.0181005835249690e-03
         - -4.4079234319159433e-03
         - 3.0595892420972898e-04
         - -9.4053317670875680e-04
         - 7.9144258335346034e-03
         - 3.1195475302860433e-05
         - -6.1839065176057919e-03
         - 2.7913822062760026e-03
         - -1.3967668406208525e-03
         - 4.9425595131622838e-05
         - 9.9124628701275047e-04
         - 7.6022123768605052e-03
         - 4.9261445108480639e-03
         - 9.3521299740210344e-04
         - -6.8981395280095113e-03
         - -5.5698363018729137e-03
         - -6.8253654818297164e-04
         - 5.9620237767164094e-03
         - -4.2277325785660472e-03
         - -3.1005471679874045e-05
         - 3.2089694188855954e-03
         - -3.5708556116955266e-03
         - 2.2570207897062624e-03
         - -5.2872809382236317e-03
         - 7.0906957335955005e-04
         - -1.9347536494115499e-03
         - -3.5197515463542585e-03
         - 4.2720576595109833e-03
         - -9.4957023909992655e-04
         - 6.4273066079063969e-03
         - -3.4620856407010302e-03
         - -6.4673839266858081e-03
         - -4.6510031677496093e-03
         - 2.8592858832323905e-03
         - -1.3696248417470556e-03
         - -4.7080430739319711e-03
         - -3.5593107747748597e-03
         - 2.0662384088514290e-03
         - -1.5664672163454329e-03
         - -2.7284517179356183e-03
         - 8.0863572227816219e-03
         - -1.6380192921283468e-03
         - -6.2193060590990338e-03
         - 2.1842550494345113e-04
         - 7.5205488219696436e-03
         - 4.6913016658802192e-03
         - 2.6043686918994771e-03
         - 6.5096096414127124e-03
         - -1.0693018103380178e-03
         - 5.2217203376748247e-03
         - 5.8361683961359948e-03
         - -3.8104231114291140e-04
         - -7.5669387665668686e-03
         - -3.8136641525988481e-03
         - -4.7641491975365371e-03
         - -6.4338193465204949e-03
         - 4.9861938222494047e-03
         - 1.0996935083403732e-03
         - -4.9001688007356929e-03
         - 4.7793692129261111e-03
         - -6.9922297011958947e-03
         - -3.1165203514044886e-03
         - 5.5085354063792169e-03
         - -3.2461556514151767e-03
         - -4.6110480883923069e-03
         - 4.2919872757014952e-03
         - -1.3316731915543989e-03
         - 3.3973541118554559e-03
         - -5.9517168577276226e-03
         - 5.8729094203082135e-03
         - 2.2183915545682812e-03
         - 7.8049462440179414e-03
         - 4.4671752566870183e-03
         - -5.7186264169001152e-03
         - 4.9788595924727128e-03
         - 6.5250967237758114e-04
         - 2.0098918546265785e-03
         - 2.4405193126241388e-03
         - 7.3095861458308709e-04
         - 4.2299320447324457e-03
         - -4.8219808353658816e-04
         - 1.9633314470756569e-03
         - 7.1860566528797222e-03
         - 6.5265094372802699e-03
         - 2.7380989601330269e-03
         - -2.0580708605419710e-03
         - 5.2203111165150537e-03
         - -3.8341911899759900e-03
         - 6.3610508253807629e-03
         - -4.2561492815422347e-03
         - -6.4276454268753710e-03
         - 7.2383115302728732e-03
         - 1.3094917855582507e-03
         - -5.1991859049806202e-03
         - 4.4977346498048928e-03
         - 5.5696138960577160e-03
         - 5.3528554221078991e-03
         - -5.6355825534874504e-03
         - -6.3007925199120424e-04
         - -1.0615116906961656e-03
         - -6.9831688411456450e-03
         - 1.1052813273841429e-03
         - -7.0589602811861434e-03
         - -7.5481874306908342e-03
         - -1.3702692308157263e-03
         - -8.8833461710171333e-04
         - 5.5447685351915407e-03
         - 3.2344891394579509e-03
         - -4.7475965016759948e-03
         - 3.3458914884048532e-03
         - -2.4271896205552172e-03
         - -5.2107867221298516e-04
         - 5.7459200524022178e-03
         - 2.2794736764398518e-03
         - 3.0474755104783705e-03
         - 2.1709235579503621e-03
         - 4.3564376114907013e-03
         - -5.9379821646578547e-03
         - 3.6251955843033218e-03
         - 3.3797524077477143e-03
         - -2.4876139158184563e-03
         - -2.8785666175254266e-03
         - -6.6768295332465749e-03
         - -5.4241264202483548e-03
         - -4.3537573785128033e-03
         - -6.4328186245316112e-03
         - 1.9468690169518528e-03
         - -5.6846128767186017e-03
         - -8.2090580832875192e-03
         - 4.2411556208806107e-03
         - 5.4817774959099721e-03
         - -7.0355415126498299e-03
         - -4.1601233423741108e-03
         - 3.4161311548388694e-03
         - -6.7268191943959509e-03
         - 1.9591970382265637e-04
         - 1.0154760528008372e-02
         - 3.8471746103714640e-03
         - 5.0870762834177427e-03
         - -2.1075123381228546e-03
         - -3.8243705149326262e-03
         - -4.5058586581645729e-03
         - -6.8704645623171873e-03
         - -2.0806793803838410e-03
         - -4.5159678965703467e-03
         - -5.4928050024017567e-03
         - -8.0612617727439852e-03
         - 4.2193179516903760e-03
         - 1.1473399994590058e-03
         - 3.4613543274030030e-03
         - 1.8243091698857104e-03
         - -5.2054573729844601e-04
         - 1.1145251015996448e-03
         - 4.9356331531967262e-03
         - 5.6053694772294485e-03
         - 5.8383691080820541e-03
         - -4.6281346693197939e-03
         - 3.8982172481975617e-03
         - -2.6348884329650112e-03
         - 2.5570537786419626e-03
         - -1.5043303560887573e-03
         - -6.1546738885758434e-03
         - -7.4345658774712655e-03
         - -2.3315782565078431e-03
         - 2.6931336488716272e-04
         - 2.3204402460413089e-03
         - -2.5504353353146569e-03
         - -2.5144292459296073e-03
         - -3.7255278606311659e-03
         - 2.6919071024225265e-03
         - 5.2958390947522790e-03
         - 3.2345107115229620e-03
         - 3.0916925590528162e-03
         - 4.8955696950092886e-03
         - 4.9063314766788673e-03
         - -7.0773163699502087e-03
         - -2.0387698871642038e-03
         - 7.7660574318510296e-04
         - -7.1230354217776638e-03
         - -1.2904873870977546e-03
         - -2.8018849207912277e-03
         - -3.8552777930866981e-03
         - -3.9221519139407491e-03
         - 6.6009344624612699e-03
         - 1.9948467978418553e-03
         - -5.5190153611950794e-03
         - -7.3077258637892278e-03
         - 3.9647637676408411e-03
         - 3.0904398704898165e-03
         - 5.8032679528170206e-03
         - -4.5269258511472154e-03
         - -4.1236716794741252e-03
         - 2.8160587931857020e-04
         - 3.4387319920087555e-03
         - 6.9234620485735731e-03
         - -3.2752540768356052e-03
         - -1.8573923867154342e-03
         - -4.0289082610494251e-05
         - -2.7004167036573591e-03
         - -5.5796600244799668e-03
         - -1.9011270690947510e-03
         - -6.9968401567097700e-03
         - 4.5579149570604549e-03
         - -5.1652836399548692e-03
         - -2.9571983419627141e-03
         - -9.4355333903965483e-04
         - 2.1099769886971675e-03
         - -3.4525523931235999e-03
         - -2.1017056257909487e-03
         - 1.4745083411145271e-03
         - 6.8825418471794755e-04
         - -3.1186498748572364e-03
         - -7.6594847948773283e-03
         - -1.0894280366032267e-03
         - -5.9048712836914921e-03
         - -1.0455490811188749e-03
         - -2.5886583819488386e-03
         - 4.5593096634912135e-03
         - -2.6642030051155416e-03
         - -6.4089183355771386e-03
         - -5.6034328397888775e-03
         - -1.5140417056909617e-03
         - 5.9592459099234085e-03
         - 9.0138915490261358e-04
         - 9.0602352302536677e-04
         - 3.3712040330519735e-03
         - -5.4657952774493628e-03
         - 4.0573035775996660e-03
         - -5.3917740497025340e-03
         - -3.6891133335417371e-03
         - -2.2388088075159774e-03
         - -4.0965388520258052e-03
         - 3.1008947313381362e-03
         - 5.4418057832382174e-03
         - 1.2285236078838340e-03
         - -5.3924156797826254e-03
         - 8.6877790330768022e-04
         - 1.9456966950439944e-04
         - -8.0963064484779208e-03
         - -3.0255333798193409e-03
         - -5.6759433916380516e-04
         - 3.5465316583133187e-03
         - 7.4585895850434226e-04
         - 6.4028821183283163e-03
         - 4.5399565215589474e-03
         - -1.8470057061558977e-03
         - -5.6098685941078025e-03
         - -6.1884038681033838e-03
         - 3.8268519688456097e-03
         - -5.5499746442812152e-03
         - 5.2893585183058141e-03
         - 4.9198587995132083e-03
         - 7.5133166151688975e-03
         - -3.3804556441060542e-03
         - 1.5020004611715804e-03
         - 2.8853238766710959e-03
         - -1.3747108342813835e-03
         - -3.3419151871420604e-04
         - -1.0827342509915436e-03
         - 3.4005799281258209e-03
         - -1.0083986742791041e-03
         - -4.5888192298110218e-03
         - 5.6936843727972246e-03
         - 2.9769495353805986e-04
         - -2.3755303648502510e-03
         - 1.6922688830662165e-03
         - 6.0275941085534447e-03
         - 1.1024361340904760e-03
         - 5.5115962891988529e-03
         - -2.7015483985909214e-03
         - 5.7218400565566983e-03
         - -3.4161242783984356e-04
         - -9.0871621664132603e-04
         - -2.6486378677357627e-03
         - 5.7292770795838374e-03
         - -8.2393285122565781e-03
         - -2.2504625791806517e-03
         - 4.7236710650128107e-03
         - 5.4191476287831436e-03
         - 4.0749652978854098e-03
         - 1.7598810273243640e-04
         - 2.1028034425029547e-03
         - 1.3925121689624331e-03
         - 3.4717940395486493e-03
         - 5.1685751381813647e-03
         - -5.5600115265018468e-04
         - -6.0647643215317891e-04
         - 4.1387393489395298e-03
         - -1.2821018663692724e-03
         - -3.2834437644009827e-03
         - 3.4398239402363626e-03
         - -5.3199955069638165e-03
         - -6.6145069370482481e-03
         - -5.9476669341422951e-04
         - -3.9821820672249217e-03
         - -3.1588932893129515e-03
         - -8.4772580054078537e-04
         - -5.9695277023816863e-03
         - -1.5584700950246679e-04
         - 2.3809949791760791e-04
         - -4.2713647551442671e-03
         - -1.2817043274665056e-03
         - 1.5392567259998094e-03
         - -4.2915020526703247e-03
         - 6.1716574754129734e-03
         - -6.3355039226414061e-03
         - -9.6018720822565909e-04
         - 1.5371140455370207e-04
         - 4.2427561451085253e-03
         - 2.7703246424748643e-03
         - 1.3823424990988167e-03
         - -6.7642249936662015e-03
         - -6.9993537027393169e-04
         - 7.2812477568883214e-03
         - -6.6923366078599838e-03
         - -2.1907756712138365e-03
         - -1.6611336924858906e-03
         - 1.4266432495574023e-03
         - 5.2180693595405359e-03
         - -6.1983220357350998e-03
         - 4.6558116218025809e-03
         - 2.2014824200214042e-03
         - 2.6522110528349910e-03
         - -7.0394321157521388e-03
         - 1.9306942744547308e-05
         - 4.2015090480742963e-03
         - 8.0063176385610606e-03
         - 3.4529725442774021e-03
         - -8.4173565340561057e-03
         - 7.1239123409121488e-03
         - 5.7076379737331399e-03
         - 6.0310766310708785e-03
         - -8.7632762289131458e-03
         - -7.8655110836532548e-03
         - -1.5456674274876940e-03
         - 2.7118972050486590e-03
         - 9.0501566578346949e-03
         - 1.0730108954906472e-03
         - 5.7997341482687219e-03
         - 3.8960396789817168e-03
         - 4.9070165440853030e-03
         - -1.5039061064552434e-02
         - -9.3848520914113272e-03
         - -1.3897194953465135e-02
         - -4.6468009636432403e-03
         - 6.5697594818706962e-04
         - -1.0520672548902134e-02
         - 3.9297644788351786e-03
         - -2.5343851070444515e-03
         - 4.2247011034879526e-03
         - 2.2671125595735519e-03
         - -7.7064332519530638e-03
         - -3.3454863260687796e-04
         - -1.2439603649688649e-03
         - -4.7923789006003937e-03
         - 7.0476012545868936e-04
         - 2.9603042729104100e-03
         - 6.3290307878320906e-03
         - 5.5200989565395526e-03
         - 7.7528506113347115e-03
         - -1.1627904250519372e-02
         - -8.8967351645832249e-03
         - -1.5373814066263338e-02
         - 1.6726258124454500e-03
         - 4.8818853656539757e-03
         - -3.5848704104414746e-03
         - -1.1294977245936377e-02
         - -5.6556122235473039e-03
         - 1.0719458356730721e-02
         - 4.6367209683893934e-03
         - 1.1228720640939667e-03
         - -1.3805478463709466e-03
         - 6.4023219984789639e-04
         - -2.1674241098472151e-04
         - 3.6708726400165167e-03
         - -9.6805599068487142e-03
         - -3.1957796752123424e-03
         - -1.0476368706082800e-02
         - -7.8236694397974624e-03
         - -1.0010426325371027e-03
         - -5.3461916939876826e-03
         - -2.9440978061796414e-03
         - -1.2985564554670378e-03
         - 1.4218727269312306e-02
         - -1.5200623114767736e-03
         - -1.4321462168079772e-03
         - 6.9813442109287107e-04
         - -6.2253949266769448e-03
         - -6.6721804571087178e-03
         - 5.7530761590628074e-03
         - -5.3521995491608663e-03
         - -3.6873506552102505e-04
         - 1.1554877528166588e-02
         - 4.9353893474867998e-03
         - 1.4987507518620191e-02
         - -7.4658336021028848e-03
         - -4.0774783947166169e-03
         - -8.7585045651286247e-03
         - -1.2217520715256421e-02
         - 6.5638020217906306e-03
         - -1.7316864039363850e-02
         - 4.1707138239806974e-03
         - -2.5489669709026657e-03
         - -4.3442520881512172e-04
         - 5.5215559999837703e-03
         - -3.8808627567479704e-03
         - 1.1163049033874686e-02
         - 4.1412136253885495e-03
         - -1.0483496734563040e-03
         - 6.0239801869418630e-03
         - 1.6427320932654050e-02
         - 5.5303756594800657e-03
         - -5.0892057687577028e-03
         - 1.7717715764988947e-03
         - -2.1115778437467468e-03
         - 6.8086092538351016e-03
         - 3.3458069531957125e-04
         - -1.0643415379698798e-02
         - 6.8798994809612553e-03
         - -2.7018888081900335e-03
         - 5.5229879652068121e-03
         - 1.1389696021940902e-02
         - -4.9067731827832674e-03
         - -2.3496684085501031e-03
         - 3.2772327170526297e-03
         - 4.8239009995007937e-03
         - -1.7023496309888733e-03
         - 3.4605630274216715e-03
         - -4.6062201614396458e-03
         - -1.7900762986070510e-03
         - 2.5619560681291540e-03
         - 3.6023022344016851e-04
         - 6.1556595220025982e-03
         - 2.0292564695826910e-03
         - -4.9439487775725819e-03
         - -3.2618035562143625e-03
         - -1.1525056959534711e-03
         - 2.9212026900338581e-03
         - -2.7520567697004645e-03
         - 6.4942235831168277e-03
         - -1.8815798477679953e-03
         - 1.5244413359330646e-03
         - -4.8810222065338617e-03
         - 4.3557829632634255e-03
         - -4.5506583682848861e-03
         - -6.6017039268965463e-04
         - -1.8387594690861728e-03
         - -6.3701007189318941e-03
         - 5.6601715661608299e-04
         - -4.2322965719143847e-03
         - 3.9919242422308612e-03
         - 2.7611452419651359e-03
         - -3.3747721872284752e-03
         - -4.3892700379914180e-03
         - 2.8750083566588961e-03
         - 5.1971169658871939e-03
         - 3.6074509572935677e-03
         - -5.7811727044001929e-03
         - 1.0907083503492987e-03
         - -6.8575094431321101e-04
         - 4.0128165902291103e-04
         - 4.8579750336174964e-03
         - -4.8699958061098050e-03
         - -4.3321884218524001e-03
         - -6.9393348190255706e-03
         - -3.1271336166529325e-03
         - -7.3402096176340354e-03
         - 2.9142675705109092e-03
         - -4.4362086820546364e-03
         - -4.2209046454071376e-03
         - -6.9421629350454742e-03
         - -1.4213054513756201e-03
         - 7.1295409497486367e-03
         - -4.1172845723904724e-03
         - -3.7910499418954977e-03
         - -4.7753107655586977e-03
         - 7.7033190851808825e-03
         - 5.1308957804472146e-04
         - 3.5796272021863130e-03
         - -2.0398554480753422e-03
         - -1.9228256850556519e-05
         - -5.2692904871434916e-03
         - -1.8205641687228185e-03
         - 3.2052693692105915e-03
         - -1.1008339611294307e-03
         - -6.5615130970545551e-03
         - 7.9445641242695680e-03
         - 3.0987878832783033e-03
         - -2.4770581991202427e-03
         - -4.6504658203040724e-03
         - 2.7176720176112371e-03
         - -2.5407789483872911e-03
         - 4.6147808131207093e-04
         - -9.5599862186754470e-03
         - -4.0342498565762355e-03
         - -5.7478171905986468e-03
         - -8.0213733911743568e-03
         - 2.2893191457003994e-03
         - -6.2131600327077312e-03
         - -4.9114315216332851e-03
         - 2.3010069989623295e-03
         - 5.9389976412868306e-03
         - 1.1034985643098808e-03
         - 5.8305685300545154e-03
         - 4.0913020685200748e-03
         - 1.2964607909474886e-03
         - 4.0441957531012500e-04
         - 2.7709171628739850e-03
         - -7.0369261940378056e-03
         - -6.0301945068834363e-03
         - 1.1660873595017275e-03
         - -4.0741934719217702e-03
         - 2.8398328159913479e-03
         - -2.7310214940144484e-03
         - 3.4339605748693355e-03
         - 5.2814173130040628e-03
         - 6.7823230921758735e-03
         - 2.4795632857207268e-03
         - 5.5757458029507823e-03
         - -5.8417764919617447e-03
         - 1.4133025447788082e-03
         - 2.8726793161446057e-03
         - -1.4930012749973457e-03
         - 2.3439620389040434e-03
         - 5.7817600478053503e-03
         - 2.5735051810418324e-03
         - 4.7955231735880705e-03
         - 4.4243484280618375e-03
         - -5.5326508484190851e-03
         - -5.1929158491315526e-03
         - -1.4592127618447532e-03
         - 5.8514995027109081e-03
         - -2.4776629807993283e-03
         - -5.5845510747969144e-03
         - -6.9476232950299772e-04
         - 4.2276854745019257e-03
         - -1.1968760266042034e-03
         - -2.3840843201056901e-03
         - -8.9977056648052681e-04
         - -2.0849944175546052e-03
         - 2.5850056768518298e-03
         - -4.4643139078104138e-03
         - 2.3366082356041187e-03
         - 7.0638042295780360e-04
         - -1.2507436372716629e-02
         - 1.8786439594290080e-03
         - -8.9226103233564155e-03
         - 7.0832258671268515e-03
         - -6.2212977355489705e-03
         - -4.5465055715280967e-03
         - 9.0068280864843663e-03
         - 1.4187481559976042e-03
         - 1.5667352044767219e-03
         - -5.2019567686699590e-03
         - 8.1436632141016103e-03
         - 3.6189441765715454e-03
         - 2.9499541856399651e-03
         - 1.0160932079563351e-03
         - 6.0532491349814029e-03
         - 4.5048413184307998e-03
         - -1.0711192856361547e-02
         - -3.7394534140118532e-03
         - -5.0556960686388118e-03
         - -4.3193794759400599e-03
         - -2.2244313728836851e-03
         - -2.7262141633613221e-03
         - -7.2838425933494473e-03
         - -4.3022502189140289e-03
         - 6.8880021899011450e-03
         - 6.2841043096283017e-03
         - 5.1644616035255433e-03
         - 7.6219887935930365e-03
         - 3.6586943209713872e-03
         - -3.1369531027700993e-03
         - 5.6663257800758119e-03
         - -3.0766993288754031e-03
         - 1.7600688887526160e-03
         - -6.1843965070904764e-03
         - 2.4267593593803364e-03
         - 8.8381580363556637e-03
         - 5.7617101787966899e-03
         - 1.9464872650009357e-03
         - 3.0021086888996202e-04
         - 5.6980745109853591e-03
         - 2.0996515222337694e-03
         - 3.1007537238075247e-03
         - 1.0966517321424453e-03
         - -3.1184236336307403e-03
         - -7.0285775509115519e-03
         - -3.9168880940573074e-03
         - -7.2484055327908586e-03
         - -5.2654079797402912e-03
         - 6.0065143292840654e-03
         - 7.8638032865553913e-03
         - 2.6781551653408606e-03
         - 1.4066201619394991e-03
         - -8.0766185307130523e-03
         - -4.4937640349953087e-03
         - -7.8787052695924176e-03
         - 8.6181249361217942e-03
         - -5.2133017729380548e-03
         - 1.6836240663357087e-03
         - -4.1136518416396116e-03
         - 4.1586625195467568e-03
         - 6.6081006024439485e-03
         - -4.9500930737406109e-03
         - 4.7010074423331797e-03
         - -3.1818480660811022e-04
         - -2.6469315985643512e-03
         - 2.0578854960191981e-03
         - 8.2593638097958697e-03
         - -5.9273159963801577e-04
         - -4.5801578132044270e-03
         - 2.9888976277212759e-03
         - 3.5049259915848788e-03
         - -1.8031414689041066e-04
         - -2.9897982255570089e-03
         - 3.6586933235283659e-05
         - -3.6213387591013824e-03
         - 2.5655610860459890e-03
         - -3.1199898537640882e-03
         - 3.2817347452592338e-03
         - -5.5761170356555404e-03
         - -5.1109911283245806e-03
         - -1.3696467790962788e-03
         - -3.8001633394442410e-03
         - 5.7709164113505839e-03
         - -2.7522123228990113e-03
         - 1.6368545686443849e-03
         - -6.5072456205780480e-04
         - 8.3874798903635934e-03
         - 2.5048391303574111e-03
         - 5.3844001069162616e-03
         - -5.5985467466383521e-03
         - -4.1559347717581886e-03
         - 1.1577412495665483e-03
         - 3.1509020343909312e-04
         - -7.9646204647494823e-03
         - 1.7266135051349949e-03
         - -1.6038995596416702e-03
         - -3.5296153944634425e-04
         - -4.9355347807992517e-03
         - 4.1704319260114963e-03
         - -5.7176161594302095e-03
         - -3.8192085313201382e-03
         - 4.0144878946479995e-03
         - 4.2403078250531192e-03
         - 5.3955595293764770e-03
         - 5.2638567335535355e-03
         - 6.0860473844120385e-03
         - 6.9451328382602916e-03
         - -7.6279821449765767e-04
         - -6.2304441383067878e-03
         - -5.1962310921953928e-03
         - 5.6352364170641532e-03
         - 4.6395999816827536e-03
         - 7.7007908182991627e-03
         - 3.2681426773759114e-03
         - 1.1874081024104682e-03
         - 5.2259168535136848e-03
         - -2.3261542506212100e-03
         - -3.5665750956134241e-03
         - 2.7476641708815536e-03
         - 3.1669818470579781e-03
         - -3.3879471068559135e-03
         - -2.7630170630544315e-03
         - -5.5530994891687590e-03
         - 2.5929673813472336e-03
         - 9.8954212370543672e-03
         - 5.3049202804707979e-03
         - 7.2235152306470030e-03
         - 8.0907937669633407e-03
         - -1.7833067517308396e-03
         - -2.0860896799278642e-03
         - 3.8967192932332158e-03
         - 6.7469216711718120e-03
         - 7.4464518216784545e-05
         - 5.0504505169788735e-03
         - -1.2191784425139650e-04
         - -2.1987666742742632e-03
         - 4.7466884756972574e-03
         - -8.3403676242601987e-03
         - -1.4848268936797355e-03
         - 9.6536456614322464e-03
         - -5.7243963777508285e-04
         - -6.0902152250675321e-04
         - 2.2561569732355508e-03
         - -2.2693561751264421e-03
         - -1.6234939490619060e-03
         - 4.6693409951975434e-03
         - 3.7721156280692866e-03
         - 8.3613227753232804e-03
         - 1.2204752866003521e-03
         - 3.0479075503465062e-04
         - 9.5482400290409948e-03
         - 3.6744798673694623e-03
         - -5.5670287474590624e-03
         - -5.9555717272861682e-06
         - 1.5691637818725593e-03
         - 7.5991555195838644e-03
         - -5.7182968878557632e-03
         - -7.1516907372605647e-03
         - -3.3019397721382568e-03
         - -6.5034231105311428e-03
         - 4.7733029332657261e-03
         - -4.6637554268615742e-03
         - 1.1237031767521678e-03
         - 2.0662261473833555e-03
         - 5.1765326960319848e-03
         - 1.9034904391383182e-03
         - 1.2837888652284721e-03
         - 7.2170956512766973e-03
         - 3.6162239897276280e-03
         - -6.8914877827329878e-03
         - -5.3860631862725694e-03
         - 4.2976773378647602e-03
         - 5.1750581744707145e-03
         - -5.5163854104231481e-03
         - 5.5982382977366315e-03
         - -9.8221763408722833e-04
         - 5.1667761289218165e-03
         - -5.0598699092511083e-03
         - -4.5022903377261406e-04
         - -7.3987125016944030e-03
         - 3.2306181256901907e-03
         - 2.5802680838502446e-03
         - 6.1309913801266703e-03
         - -8.4098589348427996e-03
         - -1.3794730771220053e-02
         - 4.5327773597170331e-03
         - 8.7557758795742454e-03
         - -4.0135498509864540e-03
         - -8.6347796482627789e-03
         - -2.3806232371866116e-03
         - 3.7000032894233658e-04
         - 5.5361414382435288e-03
         - 1.5031416866191532e-02
         - -1.0533772962456559e-02
         - 8.6597852197067907e-03
         - 3.9523451823284391e-03
         - -2.4476802045134941e-03
         - -7.7482397426604649e-03
         - -7.8993273551222036e-03
         - -1.5012305165247567e-02
         - -1.1086845940638888e-02
         - 4.7313364511164628e-03
         - -7.7740480816832144e-03
         - 6.1199267752481464e-03
